<?xml version="1.0"?>
<opencv_storage>
<cascade>
  <stageType>BOOST</stageType>
  <featureType>LBP</featureType>
  <height>64</height>
  <width>64</width>
  <stageParams>
    <boostType>GAB</boostType>
    <minHitRate>9.9500000476837158e-01</minHitRate>
    <maxFalseAlarm>5.0000000000000000e-01</maxFalseAlarm>
    <weightTrimRate>9.4999999999999996e-01</weightTrimRate>
    <maxDepth>1</maxDepth>
    <maxWeakCount>100</maxWeakCount></stageParams>
  <featureParams>
    <maxCatCount>256</maxCatCount>
    <featSize>1</featSize></featureParams>
  <stageNum>25</stageNum>
  <stages>
    <!-- stage 0 -->
    <_>
      <maxWeakCount>4</maxWeakCount>
      <stageThreshold>-1.5980174541473389e+00</stageThreshold>
      <weakClassifiers>
        <_>
          <internalNodes>
            0 -1 44 -873726977 171967531 1342182785 1162019121
            -670392085 -880607062 -486042149 1609499203</internalNodes>
          <leafValues>
            -8.0673182010650635e-01 4.6581876277923584e-01</leafValues></_>
        <_>
          <internalNodes>
            0 -1 31 -523572238 -1358298878 -2121236207 1561362688
            1143064733 -1155530655 1249912575 -539503933</internalNodes>
          <leafValues>
            -7.9586040973663330e-01 4.7966471314430237e-01</leafValues></_>
        <_>
          <internalNodes>
            0 -1 122 406871901 -1312809077 -1070524201 -1111817766
            1670126252 -1454071672 -1727279660 -1144250000</internalNodes>
          <leafValues>
            -6.7259037494659424e-01 5.8083760738372803e-01</leafValues></_>
        <_>
          <internalNodes>
            0 -1 82 -269484945 -403705873 2080338482 -226493836
            -805343409 258932575 1409263606 -167772673</internalNodes>
          <leafValues>
            -5.9538543224334717e-01 7.0637285709381104e-01</leafValues></_></weakClassifiers></_>
    <!-- stage 1 -->
    <_>
      <maxWeakCount>4</maxWeakCount>
      <stageThreshold>-1.6011340618133545e+00</stageThreshold>
      <weakClassifiers>
        <_>
          <internalNodes>
            0 -1 70 -112200753 -1547577337 -2138701054 -226111337
            -1014248097 146964994 -149184349 -134480997</internalNodes>
          <leafValues>
            -7.2146999835968018e-01 5.7364338636398315e-01</leafValues></_>
        <_>
          <internalNodes>
            0 -1 91 -69222403 -40779635 -1543419813 -1244184568
            -242519067 -402423603 -490536645 803152390</internalNodes>
          <leafValues>
            -7.8963583707809448e-01 4.6991184353828430e-01</leafValues></_>
        <_>
          <internalNodes>
            0 -1 50 -456595354 1872757662 1235472727 -279029048
            -1985821441 -913829384 713595883 -143920385</internalNodes>
          <leafValues>
            -7.4129271507263184e-01 4.7638288140296936e-01</leafValues></_>
        <_>
          <internalNodes>
            0 -1 83 -338699541 -536309490 1375754656 2102904963
            -1962818661 1174585480 -490614510 -202648749</internalNodes>
          <leafValues>
            -6.0828310251235962e-01 5.9798955917358398e-01</leafValues></_></weakClassifiers></_>
    <!-- stage 2 -->
    <_>
      <maxWeakCount>4</maxWeakCount>
      <stageThreshold>-1.5816977024078369e+00</stageThreshold>
      <weakClassifiers>
        <_>
          <internalNodes>
            0 -1 76 -606092917 -880590582 -652639214 -2502389
            -1039427425 92831874 -1333075581 -203435061</internalNodes>
          <leafValues>
            -6.8695652484893799e-01 5.0679612159729004e-01</leafValues></_>
        <_>
          <internalNodes>
            0 -1 106 797967136 -548858827 1430491615 -680423025
            -1316348949 -103153521 1099686655 -72537617</internalNodes>
          <leafValues>
            -7.4099886417388916e-01 5.1844239234924316e-01</leafValues></_>
        <_>
          <internalNodes>
            0 -1 6 -68170037 134595150 268641165 -340016610 38324107
            -91495798 1778450473 2007984991</internalNodes>
          <leafValues>
            -7.1894633769989014e-01 4.8706284165382385e-01</leafValues></_>
        <_>
          <internalNodes>
            0 -1 16 -1060115729 1145512731 90361 1784827947 1628038047
            694747138 1194041995 1627368399</internalNodes>
          <leafValues>
            -6.9423735141754150e-01 5.2042478322982788e-01</leafValues></_></weakClassifiers></_>
    <!-- stage 3 -->
    <_>
      <maxWeakCount>4</maxWeakCount>
      <stageThreshold>-1.5116912126541138e+00</stageThreshold>
      <weakClassifiers>
        <_>
          <internalNodes>
            0 -1 0 -908143137 -553598538 -997166829 -12156158 -650147157
            -580353406 1505989375 -7401</internalNodes>
          <leafValues>
            -7.0392155647277832e-01 5.0566035509109497e-01</leafValues></_>
        <_>
          <internalNodes>
            0 -1 115 358233364 -679680171 289503227 -7228713 -134194571
            -1081570094 850135736 -1081081072</internalNodes>
          <leafValues>
            -7.9632532596588135e-01 4.0898779034614563e-01</leafValues></_>
        <_>
          <internalNodes>
            0 -1 83 -268439697 -307298898 -218107152 -68157517
            -268441617 1283456911 -134220297 -134217729</internalNodes>
          <leafValues>
            -5.7000118494033813e-01 6.2083536386489868e-01</leafValues></_>
        <_>
          <internalNodes>
            0 -1 102 -45667553 188722639 419475575 -1168669793 269421573
            -342228981 -2097080027 -4722123</internalNodes>
          <leafValues>
            -6.5102505683898926e-01 5.5906659364700317e-01</leafValues></_></weakClassifiers></_>
    <!-- stage 4 -->
    <_>
      <maxWeakCount>5</maxWeakCount>
      <stageThreshold>-8.6518502235412598e-01</stageThreshold>
      <weakClassifiers>
        <_>
          <internalNodes>
            0 -1 77 -180881489 -1060812663 -1861429230 -551058595
            -928786018 1158344726 -511061353 -70254949</internalNodes>
          <leafValues>
            -6.4259260892868042e-01 5.1914894580841064e-01</leafValues></_>
        <_>
          <internalNodes>
            0 -1 129 886051797 -1660923447 -1793109547 -1084542889
            -1341118215 -609640309 -1358386262 -1158398496</internalNodes>
          <leafValues>
            -6.2790369987487793e-01 5.5373919010162354e-01</leafValues></_>
        <_>
          <internalNodes>
            0 -1 64 -423441458 -477986710 288440727 -574270628
            -1726371019 -1147434869 -120683539 -546333850</internalNodes>
          <leafValues>
            -7.1502590179443359e-01 4.6940061450004578e-01</leafValues></_>
        <_>
          <internalNodes>
            0 -1 4 -926424338 -125321149 1347731604 1904394243
            -1430004993 1552789891 1212385503 1405588155</internalNodes>
          <leafValues>
            -6.3607478141784668e-01 5.2540946006774902e-01</leafValues></_>
        <_>
          <internalNodes>
            0 -1 105 545920113 1971814584 -2146955107 1058422921
            -1962831438 -1633154904 -1970674757 -1096275899</internalNodes>
          <leafValues>
            -5.8671516180038452e-01 6.1688756942749023e-01</leafValues></_></weakClassifiers></_>
    <!-- stage 5 -->
    <_>
      <maxWeakCount>5</maxWeakCount>
      <stageThreshold>-9.6499621868133545e-01</stageThreshold>
      <weakClassifiers>
        <_>
          <internalNodes>
            0 -1 95 -786156971 -2893285 -1056795233 -549320233 571488953
            -74014589 -1649759555 -7323823</internalNodes>
          <leafValues>
            -6.9635629653930664e-01 4.2348754405975342e-01</leafValues></_>
        <_>
          <internalNodes>
            0 -1 128 613680825 -539045437 -1552722465 -1626651767
            -1548672513 -125173059 -190109507 -1091565176</internalNodes>
          <leafValues>
            -6.3746178150177002e-01 4.9102964997291565e-01</leafValues></_>
        <_>
          <internalNodes>
            0 -1 87 -2129 1877933870 -285278496 -76087307 -12322
            1339555839 -201336841 -673185801</internalNodes>
          <leafValues>
            -5.4840147495269775e-01 6.2934052944183350e-01</leafValues></_>
        <_>
          <internalNodes>
            0 -1 126 255857021 -67679293 -1722605601 -38678049
            -108178707 -874937981 -1163285923 1995722500</internalNodes>
          <leafValues>
            -7.0993745326995850e-01 4.9287652969360352e-01</leafValues></_>
        <_>
          <internalNodes>
            0 -1 26 -83635237 -792702150 -804847344 1807892482
            -158826339 -2012053493 -1929254501 1538513364</internalNodes>
          <leafValues>
            -6.7042505741119385e-01 5.5682104825973511e-01</leafValues></_></weakClassifiers></_>
    <!-- stage 6 -->
    <_>
      <maxWeakCount>5</maxWeakCount>
      <stageThreshold>-8.2844120264053345e-01</stageThreshold>
      <weakClassifiers>
        <_>
          <internalNodes>
            0 -1 21 -328282389 -177504037 -1719631523 -539237997
            -1877466961 -1358419508 -1187869793 -70522117</internalNodes>
          <leafValues>
            -6.3057327270507812e-01 5.3880268335342407e-01</leafValues></_>
        <_>
          <internalNodes>
            0 -1 114 512637365 2147254271 -269059139 -4196353
            -1107984641 -197253 -1073873219 -1342956684</internalNodes>
          <leafValues>
            -5.2879893779754639e-01 5.9802597761154175e-01</leafValues></_>
        <_>
          <internalNodes>
            0 -1 81 -528401 -269488273 -486561056 -450363470 1308614655
            1340603887 -251693068 -536870921</internalNodes>
          <leafValues>
            -5.0364464521408081e-01 6.2338232994079590e-01</leafValues></_>
        <_>
          <internalNodes>
            0 -1 125 2128375677 2145083639 1109686367 1527767391
            -511061201 -1179990645 2074815898 2140961469</internalNodes>
          <leafValues>
            -7.4874949455261230e-01 4.3146270513534546e-01</leafValues></_>
        <_>
          <internalNodes>
            0 -1 49 -850752613 -276036533 459587 1460802954 1619139787
            142805511 1115686949 1481515975</internalNodes>
          <leafValues>
            -7.1307772397994995e-01 4.9415016174316406e-01</leafValues></_></weakClassifiers></_>
    <!-- stage 7 -->
    <_>
      <maxWeakCount>5</maxWeakCount>
      <stageThreshold>-1.0791605710983276e+00</stageThreshold>
      <weakClassifiers>
        <_>
          <internalNodes>
            0 -1 63 -559941137 -1060650609 -493708592 -120376823
            -175714137 1222353064 -510925865 -140773125</internalNodes>
          <leafValues>
            -6.6465860605239868e-01 3.8267147541046143e-01</leafValues></_>
        <_>
          <internalNodes>
            0 -1 98 465178997 -573025825 -1861659169 -1222895271
            -938301251 -1159130480 -746516996 -1172293632</internalNodes>
          <leafValues>
            -5.4847782850265503e-01 5.6314551830291748e-01</leafValues></_>
        <_>
          <internalNodes>
            0 -1 47 -2690050 -201408358 -887957206 -370669502 -492060208
            -862279125 1808572947 -268478653</internalNodes>
          <leafValues>
            -6.8998110294342041e-01 4.2947903275489807e-01</leafValues></_>
        <_>
          <internalNodes>
            0 -1 134 521695603 -44511009 -1425712677 -674764641
            -594984105 -540944287 -2113160227 1769753441</internalNodes>
          <leafValues>
            -7.5590556859970093e-01 3.7701579928398132e-01</leafValues></_>
        <_>
          <internalNodes>
            0 -1 29 -1068768549 1946190063 1359235589 1578647555
            -268326673 1261045833 -500981361 1741138843</internalNodes>
          <leafValues>
            -5.8692771196365356e-01 5.2302592992782593e-01</leafValues></_></weakClassifiers></_>
    <!-- stage 8 -->
    <_>
      <maxWeakCount>6</maxWeakCount>
      <stageThreshold>-1.2757178544998169e+00</stageThreshold>
      <weakClassifiers>
        <_>
          <internalNodes>
            0 -1 88 -19400769 -907308213 -797724526 -41174567 1392749039
            1252561449 -491466285 -134220805</internalNodes>
          <leafValues>
            -6.1467891931533813e-01 4.7826087474822998e-01</leafValues></_>
        <_>
          <internalNodes>
            0 -1 124 91494261 -214101679 -788399659 -543991535
            -684737633 -137657813 -1970733920 -1081325024</internalNodes>
          <leafValues>
            -6.1578893661499023e-01 4.2954716086387634e-01</leafValues></_>
        <_>
          <internalNodes>
            0 -1 62 -889979025 -1459367865 -2109285998 -174435154
            -1048512389 1263764215 -240722794 -411060497</internalNodes>
          <leafValues>
            -5.4563200473785400e-01 5.2920883893966675e-01</leafValues></_>
        <_>
          <internalNodes>
            0 -1 14 -536885521 -839971058 2147411895 2132795273
            -268456225 -22082193 -17436289 -69254970</internalNodes>
          <leafValues>
            -4.9968165159225464e-01 6.1961764097213745e-01</leafValues></_>
        <_>
          <internalNodes>
            0 -1 108 2045009651 -1082212481 2138914814 394018805
            2138846545 -1124698123 -293701667 -1159717232</internalNodes>
          <leafValues>
            -4.9546882510185242e-01 5.9728616476058960e-01</leafValues></_>
        <_>
          <internalNodes>
            0 -1 46 -244063221 -1530818233 -1052557181 -490717094
            1284133147 1044152745 -1709856521 -169346089</internalNodes>
          <leafValues>
            -6.5847516059875488e-01 4.5019641518592834e-01</leafValues></_></weakClassifiers></_>
    <!-- stage 9 -->
    <_>
      <maxWeakCount>5</maxWeakCount>
      <stageThreshold>-9.9795573949813843e-01</stageThreshold>
      <weakClassifiers>
        <_>
          <internalNodes>
            0 -1 72 -133957125 -607401976 96665667 1471795585
            -1610559333 -2012495218 1099892907 -750010113</internalNodes>
          <leafValues>
            -5.9006214141845703e-01 5.0827425718307495e-01</leafValues></_>
        <_>
          <internalNodes>
            0 -1 96 1301426999 -180268707 1428281791 1963340166
            -875477131 -7741286 -670537167 -351246496</internalNodes>
          <leafValues>
            -7.1097141504287720e-01 3.6622759699821472e-01</leafValues></_>
        <_>
          <internalNodes>
            0 -1 22 -367678821 83953154 -905914151 386560913 -1023285536
            -784133725 -481541653 -612109107</internalNodes>
          <leafValues>
            -5.5685377120971680e-01 5.1118296384811401e-01</leafValues></_>
        <_>
          <internalNodes>
            0 -1 119 999297501 1027617241 -216198793 -1613846246
            -591387655 1905969834 -1004455698 2093253192</internalNodes>
          <leafValues>
            -6.4009803533554077e-01 4.5811000466346741e-01</leafValues></_>
        <_>
          <internalNodes>
            0 -1 67 -979787102 1099073664 1343426867 -643084255
            -2138971950 1074282563 1191604931 1393548195</internalNodes>
          <leafValues>
            -6.4520615339279175e-01 4.8645663261413574e-01</leafValues></_></weakClassifiers></_>
    <!-- stage 10 -->
    <_>
      <maxWeakCount>5</maxWeakCount>
      <stageThreshold>-1.0207314491271973e+00</stageThreshold>
      <weakClassifiers>
        <_>
          <internalNodes>
            0 -1 60 -5244421 -542125848 -563612687 -538446089 -71315525
            -1343489282 1166013695 -538976769</internalNodes>
          <leafValues>
            -5.4403293132781982e-01 6.2985074520111084e-01</leafValues></_>
        <_>
          <internalNodes>
            0 -1 133 1989172605 -1613787115 1095338199 -1181884013
            1233408485 -106134375 -1411814788 1022391125</internalNodes>
          <leafValues>
            -7.9936528205871582e-01 3.2158207893371582e-01</leafValues></_>
        <_>
          <internalNodes>
            0 -1 19 -428874042 2044134209 1677756556 -867975157
            -427744114 1508458826 -931026705 757066251</internalNodes>
          <leafValues>
            -6.6073119640350342e-01 4.0656664967536926e-01</leafValues></_>
        <_>
          <internalNodes>
            0 -1 104 -38524939 2113830910 2147401727 -1078509569
            2113727485 -50462721 -1175126083 -1146603587</internalNodes>
          <leafValues>
            -5.0369453430175781e-01 5.5543649196624756e-01</leafValues></_>
        <_>
          <internalNodes>
            0 -1 63 -111194737 -524041316 -2124378062 -1908284577
            1233280957 1233699883 -2070669597 -693441054</internalNodes>
          <leafValues>
            -6.3933640718460083e-01 4.2219892144203186e-01</leafValues></_></weakClassifiers></_>
    <!-- stage 11 -->
    <_>
      <maxWeakCount>5</maxWeakCount>
      <stageThreshold>-1.0708061456680298e+00</stageThreshold>
      <weakClassifiers>
        <_>
          <internalNodes>
            0 -1 12 -389134081 -183041635 -804188705 -1017313915
            -1541853713 -1564380534 -893245235 -283253445</internalNodes>
          <leafValues>
            -6.4670050144195557e-01 3.3097344636917114e-01</leafValues></_>
        <_>
          <internalNodes>
            0 -1 58 263977863 -1464608339 -1274413712 -162332517
            1938534413 248185216 1929601588 -455091305</internalNodes>
          <leafValues>
            -6.5533721446990967e-01 3.8610458374023438e-01</leafValues></_>
        <_>
          <internalNodes>
            0 -1 116 203440125 -216869891 -1844585003 -1105347067
            -1837067019 -1163107709 -1547372305 -1549876</internalNodes>
          <leafValues>
            -5.5578780174255371e-01 5.1184344291687012e-01</leafValues></_>
        <_>
          <internalNodes>
            0 -1 27 -229604530 1532141979 1790021 -1149828830 -628975459
            -1802600431 1502218501 -609237693</internalNodes>
          <leafValues>
            -6.2889426946640015e-01 4.2872381210327148e-01</leafValues></_>
        <_>
          <internalNodes>
            0 -1 101 -1806927012 -1252781533 -780008193 -1186773877
            -935818987 -1147512693 -1610573076 -1727527080</internalNodes>
          <leafValues>
            -6.0320216417312622e-01 4.6022790670394897e-01</leafValues></_></weakClassifiers></_>
    <!-- stage 12 -->
    <_>
      <maxWeakCount>6</maxWeakCount>
      <stageThreshold>-5.8906364440917969e-01</stageThreshold>
      <weakClassifiers>
        <_>
          <internalNodes>
            0 -1 80 -7604229 -544211222 1610610035 -134489643 -822673409
            -808534214 364767231 -537926145</internalNodes>
          <leafValues>
            -5.3295361995697021e-01 6.3862925767898560e-01</leafValues></_>
        <_>
          <internalNodes>
            0 -1 112 542639636 1027850293 -283944901 -1592196963
            939683499 -1081278385 -796915267 -1154651475</internalNodes>
          <leafValues>
            -7.3974585533142090e-01 3.2546013593673706e-01</leafValues></_>
        <_>
          <internalNodes>
            0 -1 52 -229770290 1132816134 -2147188608 1501796874
            -1744179319 1207972098 -1513741552 1627091503</internalNodes>
          <leafValues>
            -6.8682807683944702e-01 3.4745758771896362e-01</leafValues></_>
        <_>
          <internalNodes>
            0 -1 110 -1617030791 -1691352969 -1810813685 -183365481
            590389967 -50331512 -1711258952 194000960</internalNodes>
          <leafValues>
            -5.6359148025512695e-01 4.8415714502334595e-01</leafValues></_>
        <_>
          <internalNodes>
            0 -1 55 -169871617 -903872206 -1073722924 -1064793982
            -1441430534 -2133127015 -788503409 -915421553</internalNodes>
          <leafValues>
            -6.0753691196441650e-01 4.4257655739784241e-01</leafValues></_>
        <_>
          <internalNodes>
            0 -1 48 -1065621764 1394770896 1098907905 957948103
            -1057920581 -1593243152 1669536451 1239886346</internalNodes>
          <leafValues>
            -5.9055542945861816e-01 4.9728792905807495e-01</leafValues></_></weakClassifiers></_>
    <!-- stage 13 -->
    <_>
      <maxWeakCount>6</maxWeakCount>
      <stageThreshold>-6.2158280611038208e-01</stageThreshold>
      <weakClassifiers>
        <_>
          <internalNodes>
            0 -1 17 -466362017 1972840835 -1795141313 -552337384
            -796163656 -1198915558 -1006600184 -98699345</internalNodes>
          <leafValues>
            -5.7066190242767334e-01 4.3518519401550293e-01</leafValues></_>
        <_>
          <internalNodes>
            0 -1 86 -356788249 1799471108 -2130691088 -245759933
            -1190503209 195418180 1615315154 -1013722661</internalNodes>
          <leafValues>
            -5.3603386878967285e-01 4.6366128325462341e-01</leafValues></_>
        <_>
          <internalNodes>
            0 -1 135 2104516567 -606711447 -1055533793 -74509621
            1698781173 -276193151 -189943301 517241665</internalNodes>
          <leafValues>
            -7.0758193731307983e-01 3.7649133801460266e-01</leafValues></_>
        <_>
          <internalNodes>
            0 -1 84 -347291088 358359310 -2076108487 -34348774
            1611032823 -1550941781 1101758649 -606000906</internalNodes>
          <leafValues>
            -7.0514106750488281e-01 3.3765131235122681e-01</leafValues></_>
        <_>
          <internalNodes>
            0 -1 2 682790574 -83517212 -2063597234 -509476328 -385765191
            -1903978428 2013579474 -925967945</internalNodes>
          <leafValues>
            -5.9744924306869507e-01 4.6826064586639404e-01</leafValues></_>
        <_>
          <internalNodes>
            0 -1 68 -674806488 -1325235296 -1554657135 -1754855336
            -872012630 42074114 75612353 -618933513</internalNodes>
          <leafValues>
            -5.7596689462661743e-01 4.7242254018783569e-01</leafValues></_></weakClassifiers></_>
    <!-- stage 14 -->
    <_>
      <maxWeakCount>6</maxWeakCount>
      <stageThreshold>-1.4738875627517700e+00</stageThreshold>
      <weakClassifiers>
        <_>
          <internalNodes>
            0 -1 28 -824185123 -643836461 151095647 1939709955
            -1050558177 -2134191974 -148525429 -341857541</internalNodes>
          <leafValues>
            -5.9848487377166748e-01 3.6842104792594910e-01</leafValues></_>
        <_>
          <internalNodes>
            0 -1 103 1752964989 -1323691553 286382205 -1342418805
            -1731922107 -1232416597 1686667053 -1075830912</internalNodes>
          <leafValues>
            -6.6597831249237061e-01 3.4350517392158508e-01</leafValues></_>
        <_>
          <internalNodes>
            0 -1 9 -117510690 -133807846 553886873 -1013833210
            -1582255713 -368844779 -1734104085 2074552579</internalNodes>
          <leafValues>
            -5.2241092920303345e-01 4.4379094243049622e-01</leafValues></_>
        <_>
          <internalNodes>
            0 -1 109 172297071 -1995210411 -1060862869 671535414
            -2113841035 814459336 -1366804363 -22226748</internalNodes>
          <leafValues>
            -6.9526803493499756e-01 3.6202186346054077e-01</leafValues></_>
        <_>
          <internalNodes>
            0 -1 73 -40150630 557876096 4391067 1514271060 -1073114150
            -1072444854 109171835 -989474082</internalNodes>
          <leafValues>
            -5.4203069210052490e-01 4.9228453636169434e-01</leafValues></_>
        <_>
          <internalNodes>
            0 -1 1 -17891354 1006578999 -228 -315581 -18 -83886081
            -558563 -1082954289</internalNodes>
          <leafValues>
            -4.7391051054000854e-01 5.6736165285110474e-01</leafValues></_></weakClassifiers></_>
    <!-- stage 15 -->
    <_>
      <maxWeakCount>6</maxWeakCount>
      <stageThreshold>-7.7191591262817383e-01</stageThreshold>
      <weakClassifiers>
        <_>
          <internalNodes>
            0 -1 131 823669719 -69471843 -844308067 -143422593
            -490520273 -106347077 -1129457153 -70775108</internalNodes>
          <leafValues>
            -6.4495795965194702e-01 2.7424749732017517e-01</leafValues></_>
        <_>
          <internalNodes>
            0 -1 75 -373306694 2007863464 587667607 1393934341
            -1978749761 -1498771063 1426283 -669518625</internalNodes>
          <leafValues>
            -4.9329754710197449e-01 4.8440131545066833e-01</leafValues></_>
        <_>
          <internalNodes>
            0 -1 36 1616785094 -1219215269 -1408236193 1738213459
            -104505093 862175480 781265199 1862486103</internalNodes>
          <leafValues>
            -6.8611848354339600e-01 3.5627344250679016e-01</leafValues></_>
        <_>
          <internalNodes>
            0 -1 24 1783614168 1430505153 134277545 2098460211 557187
            1925519490 -318568776 725035971</internalNodes>
          <leafValues>
            -6.0466772317886353e-01 4.3115425109863281e-01</leafValues></_>
        <_>
          <internalNodes>
            0 -1 85 -39592441 1695089422 810080320 -150765560 -485519607
            1073971207 67224421 -156548476</internalNodes>
          <leafValues>
            -6.0994970798492432e-01 3.8186791539192200e-01</leafValues></_>
        <_>
          <internalNodes>
            0 -1 38 -817668140 453527856 -1861119407 687898897
            -2122118749 -1326841065 1359857679 1427894729</internalNodes>
          <leafValues>
            -6.2164640426635742e-01 4.6212533116340637e-01</leafValues></_></weakClassifiers></_>
    <!-- stage 16 -->
    <_>
      <maxWeakCount>6</maxWeakCount>
      <stageThreshold>-1.4998428821563721e+00</stageThreshold>
      <weakClassifiers>
        <_>
          <internalNodes>
            0 -1 92 521425781 -644152929 1157664223 -577162993
            -1870091271 -1731678177 -2006841173 -1451222014</internalNodes>
          <leafValues>
            -6.1491936445236206e-01 2.8673836588859558e-01</leafValues></_>
        <_>
          <internalNodes>
            0 -1 71 -876348322 -880619390 1209169362 -993872238
            -427349878 -2012904824 -1589419357 1200965075</internalNodes>
          <leafValues>
            -6.8715524673461914e-01 2.8809526562690735e-01</leafValues></_>
        <_>
          <internalNodes>
            0 -1 15 -1860815874 2101624917 -440316045 -639773339
            -1333716370 -1903542047 1359036447 -222301641</internalNodes>
          <leafValues>
            -4.9457335472106934e-01 4.9157634377479553e-01</leafValues></_>
        <_>
          <internalNodes>
            0 -1 107 2117615365 -1108395651 -655361 1035893999
            2122219389 -1073741829 1609482044 -7334608</internalNodes>
          <leafValues>
            -4.8819229006767273e-01 5.1215726137161255e-01</leafValues></_>
        <_>
          <internalNodes>
            0 -1 39 -292560369 -431832682 -720024299 645411144
            1342404981 1929969985 1259317561 -1258556017</internalNodes>
          <leafValues>
            -7.2621911764144897e-01 3.3352583646774292e-01</leafValues></_>
        <_>
          <internalNodes>
            0 -1 56 -612279718 -788362998 -1073709026 1401018380
            1245874931 211404930 -1043804001 1129247939</internalNodes>
          <leafValues>
            -5.3467822074890137e-01 5.2123916149139404e-01</leafValues></_></weakClassifiers></_>
    <!-- stage 17 -->
    <_>
      <maxWeakCount>6</maxWeakCount>
      <stageThreshold>-1.1860918998718262e+00</stageThreshold>
      <weakClassifiers>
        <_>
          <internalNodes>
            0 -1 118 -704908331 -2080260094 -1870544891 -267791869
            -2124979711 -503265077 -1034549237 1073691239</internalNodes>
          <leafValues>
            -7.9027354717254639e-01 7.8475333750247955e-02</leafValues></_>
        <_>
          <internalNodes>
            0 -1 123 232614269 -774288893 -2008985229 -577170977
            -494060709 -259522425 -24319841 528247433</internalNodes>
          <leafValues>
            -7.1455162763595581e-01 2.5111645460128784e-01</leafValues></_>
        <_>
          <internalNodes>
            0 -1 54 1752082654 1635926322 -1073199714 1835590080
            -1727913702 -341294974 1755650251 -467863330</internalNodes>
          <leafValues>
            -7.6982605457305908e-01 2.5655379891395569e-01</leafValues></_>
        <_>
          <internalNodes>
            0 -1 74 -460872126 -812957176 285278273 -1111064412
            -1860287828 -2013036526 273703043 1427083686</internalNodes>
          <leafValues>
            -6.3388311862945557e-01 3.7078338861465454e-01</leafValues></_>
        <_>
          <internalNodes>
            0 -1 43 358859036 387007892 -661597036 487435018 -1073610532
            1501606272 271726763 158230586</internalNodes>
          <leafValues>
            -6.5239048004150391e-01 3.6489033699035645e-01</leafValues></_>
        <_>
          <internalNodes>
            0 -1 5 -290459953 -19959825 -352424195 -167903265 -285220874
            -864026629 -386956801 2079267187</internalNodes>
          <leafValues>
            -4.8596394062042236e-01 5.3457993268966675e-01</leafValues></_></weakClassifiers></_>
    <!-- stage 18 -->
    <_>
      <maxWeakCount>7</maxWeakCount>
      <stageThreshold>-9.9834138154983521e-01</stageThreshold>
      <weakClassifiers>
        <_>
          <internalNodes>
            0 -1 59 -671090865 -452507129 -745303566 -179846584
            172595899 165446051 -205016073 -157553729</internalNodes>
          <leafValues>
            -6.2022703886032104e-01 2.5989672541618347e-01</leafValues></_>
        <_>
          <internalNodes>
            0 -1 7 -127996162 -825843654 -1004408022 1176273482
            -2134992495 -1362573230 -602672133 2133227079</internalNodes>
          <leafValues>
            -6.1305731534957886e-01 3.3857464790344238e-01</leafValues></_>
        <_>
          <internalNodes>
            0 -1 23 -230229505 1581588669 -1862117091 -781647573
            -2087526373 -1976350559 -2079807479 -570867117</internalNodes>
          <leafValues>
            -5.1286953687667847e-01 4.4739019870758057e-01</leafValues></_>
        <_>
          <internalNodes>
            0 -1 97 138428240 85001477 269850071 493421765 -1996441429
            -1189475710 1619241160 -1199236480</internalNodes>
          <leafValues>
            -6.8358343839645386e-01 3.7706965208053589e-01</leafValues></_>
        <_>
          <internalNodes>
            0 -1 132 133979039 -1101266815 -2079141263 -92038553
            1662068929 -1411936254 -628831733 -1157860663</internalNodes>
          <leafValues>
            -5.8812117576599121e-01 4.0091073513031006e-01</leafValues></_>
        <_>
          <internalNodes>
            0 -1 30 -1023411121 -940572945 -453248340 -654835729
            1734702845 1862266844 -638648417 -520118809</internalNodes>
          <leafValues>
            -4.5884767174720764e-01 5.6044608354568481e-01</leafValues></_>
        <_>
          <internalNodes>
            0 -1 57 -89402701 2003809768 -419465805 -2122334539
            -1363248648 1073741561 -1082491137 -549984779</internalNodes>
          <leafValues>
            -4.2267185449600220e-01 6.3490831851959229e-01</leafValues></_></weakClassifiers></_>
    <!-- stage 19 -->
    <_>
      <maxWeakCount>6</maxWeakCount>
      <stageThreshold>-9.7614777088165283e-01</stageThreshold>
      <weakClassifiers>
        <_>
          <internalNodes>
            0 -1 89 -783286357 -972635861 -1654438526 -621343717
            -662484994 -824066044 -146128859 -167773273</internalNodes>
          <leafValues>
            -6.7764705419540405e-01 1.8000000715255737e-01</leafValues></_>
        <_>
          <internalNodes>
            0 -1 45 -488660177 -1462906101 -1860906618 1755830574
            1667572599 1245855943 -2121539273 -169350237</internalNodes>
          <leafValues>
            -6.1496180295944214e-01 3.3683937788009644e-01</leafValues></_>
        <_>
          <internalNodes>
            0 -1 127 1892440405 -108161329 -720242981 -606764913
            -528387912 -357981808 -16171977 413927140</internalNodes>
          <leafValues>
            -7.7404695749282837e-01 2.7208414673805237e-01</leafValues></_>
        <_>
          <internalNodes>
            0 -1 8 -301025314 1892291378 -1325334441 -819035948
            -1424258643 -1098694591 -339620977 797057875</internalNodes>
          <leafValues>
            -5.3294408321380615e-01 4.2781418561935425e-01</leafValues></_>
        <_>
          <internalNodes>
            0 -1 93 -962349083 -620461819 -1039068706 -674638963
            541688355 688095500 1220741969 -290723257</internalNodes>
          <leafValues>
            -5.4907780885696411e-01 4.4262266159057617e-01</leafValues></_>
        <_>
          <internalNodes>
            0 -1 117 462715765 -639451011 -1022783265 -653831997
            -1844763887 -1014923100 -569537495 -1201917511</internalNodes>
          <leafValues>
            -6.2861871719360352e-01 3.9556255936622620e-01</leafValues></_></weakClassifiers></_>
    <!-- stage 20 -->
    <_>
      <maxWeakCount>7</maxWeakCount>
      <stageThreshold>-1.1492167711257935e+00</stageThreshold>
      <weakClassifiers>
        <_>
          <internalNodes>
            0 -1 51 -286262361 -951069941 823387138 -79378406 1116504347
            1258913953 -506728249 -135798626</internalNodes>
          <leafValues>
            -6.0283690690994263e-01 2.5754883885383606e-01</leafValues></_>
        <_>
          <internalNodes>
            0 -1 130 -113222539 -787394117 168336383 -1118856802
            -141187051 -85123048 -339023819 -1157352399</internalNodes>
          <leafValues>
            -5.9447717666625977e-01 3.5089346766471863e-01</leafValues></_>
        <_>
          <internalNodes>
            0 -1 90 -757220913 1204207623 -1996406266 -1106851574
            -761267907 134443184 1393140914 -792987015</internalNodes>
          <leafValues>
            -5.4949778318405151e-01 3.8316008448600769e-01</leafValues></_>
        <_>
          <internalNodes>
            0 -1 18 -535649622 357124369 -1674535778 -182978537
            -1325106449 2067726349 1822810110 1795183139</internalNodes>
          <leafValues>
            -6.1739134788513184e-01 3.6551991105079651e-01</leafValues></_>
        <_>
          <internalNodes>
            0 -1 37 -1428967725 8503425 53675347 -672575167 1670105435
            -938377208 1096008699 1141098547</internalNodes>
          <leafValues>
            -5.6719011068344116e-01 4.1099071502685547e-01</leafValues></_>
        <_>
          <internalNodes>
            0 -1 20 -553661729 -1828258178 -118636783 -1153810818
            -4233607 -687865995 -352392183 -104878465</internalNodes>
          <leafValues>
            -3.6454787850379944e-01 6.8791460990905762e-01</leafValues></_>
        <_>
          <internalNodes>
            0 -1 69 -802959028 -1450998752 -1790949934 -1971029876
            1108246923 -939352062 -997715817 1374415562</internalNodes>
          <leafValues>
            -6.7475342750549316e-01 3.7860211730003357e-01</leafValues></_></weakClassifiers></_>
    <!-- stage 21 -->
    <_>
      <maxWeakCount>6</maxWeakCount>
      <stageThreshold>-1.0367985963821411e+00</stageThreshold>
      <weakClassifiers>
        <_>
          <internalNodes>
            0 -1 53 -78134417 -461274879 1397314323 -220515946
            1249915237 1120505035 -779398252 -235156754</internalNodes>
          <leafValues>
            -6.7430639266967773e-01 1.5117891132831573e-01</leafValues></_>
        <_>
          <internalNodes>
            0 -1 100 1940682869 930871663 -1862204513 -836645985
            -760883915 -97287005 -1194604564 1043597377</internalNodes>
          <leafValues>
            -7.0386254787445068e-01 2.4913346767425537e-01</leafValues></_>
        <_>
          <internalNodes>
            0 -1 78 1653493322 -81607662 -1593813609 1621840066
            1660043691 -117243900 1770629259 -1070268239</internalNodes>
          <leafValues>
            -6.5321677923202515e-01 3.1776022911071777e-01</leafValues></_>
        <_>
          <internalNodes>
            0 -1 35 1686217689 1515741952 -2029902452 -326889359
            538445279 605037330 -855406423 1691263190</internalNodes>
          <leafValues>
            -6.2648141384124756e-01 3.9248195290565491e-01</leafValues></_>
        <_>
          <internalNodes>
            0 -1 120 -1279701037 -604504193 -21 -537133577 -1080246284
            -1082327041 -168165381 -1443348568</internalNodes>
          <leafValues>
            -4.2972400784492493e-01 5.5567348003387451e-01</leafValues></_>
        <_>
          <internalNodes>
            0 -1 3 67981783 555060995 268779806 -1458785441 1074737543
            -1870004063 680347680 1679137527</internalNodes>
          <leafValues>
            -6.9866573810577393e-01 3.8284152746200562e-01</leafValues></_></weakClassifiers></_>
    <!-- stage 22 -->
    <_>
      <maxWeakCount>6</maxWeakCount>
      <stageThreshold>-1.0572450160980225e+00</stageThreshold>
      <weakClassifiers>
        <_>
          <internalNodes>
            0 -1 10 -497360838 -757935590 71674333 1691746839 -393684843
            -83537279 -1646459697 1637827362</internalNodes>
          <leafValues>
            -7.0588237047195435e-01 9.7256854176521301e-02</leafValues></_>
        <_>
          <internalNodes>
            0 -1 66 -653010096 -793826112 4408535 -788279275 -1434335582
            -1450065407 1078559323 1220794005</internalNodes>
          <leafValues>
            -5.7858055830001831e-01 3.3321952819824219e-01</leafValues></_>
        <_>
          <internalNodes>
            0 -1 34 -996531500 366219350 -1643967082 -1178267380
            59327662 -1719074680 415386284 -1998579706</internalNodes>
          <leafValues>
            -5.5967849493026733e-01 3.6458811163902283e-01</leafValues></_>
        <_>
          <internalNodes>
            0 -1 111 -411536771 -234624691 1125762568 -410447289
            -393698439 -1702837622 -1098626239 1049909765</internalNodes>
          <leafValues>
            -6.3051551580429077e-01 3.7560477852821350e-01</leafValues></_>
        <_>
          <internalNodes>
            0 -1 40 -430210354 -1606365184 809821248 -221736438
            1393500167 453083393 -2130623550 1908886211</internalNodes>
          <leafValues>
            -5.9252357482910156e-01 3.8279384374618530e-01</leafValues></_>
        <_>
          <internalNodes>
            0 -1 42 -485871682 -145522534 805337375 -343256718
            2016411919 -662175741 269091276 1643069968</internalNodes>
          <leafValues>
            -6.2927043437957764e-01 3.8090512156486511e-01</leafValues></_></weakClassifiers></_>
    <!-- stage 23 -->
    <_>
      <maxWeakCount>7</maxWeakCount>
      <stageThreshold>-1.0690774917602539e+00</stageThreshold>
      <weakClassifiers>
        <_>
          <internalNodes>
            0 -1 113 369130813 -217545441 1224908123 -749321733
            -1341037975 -123943709 -1994313538 -323212716</internalNodes>
          <leafValues>
            -7.0463079214096069e-01 1.5046603977680206e-01</leafValues></_>
        <_>
          <internalNodes>
            0 -1 13 -1038106435 -926121776 -502185843 886653315
            855868119 823134848 1100074411 -77372997</internalNodes>
          <leafValues>
            -5.8477413654327393e-01 3.1164103746414185e-01</leafValues></_>
        <_>
          <internalNodes>
            0 -1 33 1116042128 496021660 -2130706292 -49213276
            -2012673380 1436236931 1104193920 996926210</internalNodes>
          <leafValues>
            -6.1382269859313965e-01 3.5291039943695068e-01</leafValues></_>
        <_>
          <internalNodes>
            0 -1 65 -1413545985 -89457782 653521827 870571004 -806371590
            -921894934 -1233684611 -569376869</internalNodes>
          <leafValues>
            -3.5686033964157104e-01 6.4492595195770264e-01</leafValues></_>
        <_>
          <internalNodes>
            0 -1 121 160966632 -1673526907 -1047124737 -1719303785
            -1476293990 -1165967087 -1643580775 228862502</internalNodes>
          <leafValues>
            -6.4662408828735352e-01 3.6276781558990479e-01</leafValues></_>
        <_>
          <internalNodes>
            0 -1 61 -921841335 -1455140857 -1878850223 -61733993
            -896617109 -1449557886 -1844903471 -997228285</internalNodes>
          <leafValues>
            -4.8498398065567017e-01 5.2820378541946411e-01</leafValues></_>
        <_>
          <internalNodes>
            0 -1 79 -2082744673 -7208742 21124682 -951754038 978337921
            -1837628704 939577035 1154085257</internalNodes>
          <leafValues>
            -5.0452327728271484e-01 5.0078862905502319e-01</leafValues></_></weakClassifiers></_>
    <!-- stage 24 -->
    <_>
      <maxWeakCount>6</maxWeakCount>
      <stageThreshold>-9.4624292850494385e-01</stageThreshold>
      <weakClassifiers>
        <_>
          <internalNodes>
            0 -1 11 -45683530 -1122402287 1225040781 1243021317
            578910507 970074136 721463515 1875316235</internalNodes>
          <leafValues>
            -6.7189383506774902e-01 1.4840498566627502e-01</leafValues></_>
        <_>
          <internalNodes>
            0 -1 32 636714557 -1445969259 1359905182 1814616131
            1478494231 -123174750 1396809795 1309473287</internalNodes>
          <leafValues>
            -7.6232421398162842e-01 2.3743814229965210e-01</leafValues></_>
        <_>
          <internalNodes>
            0 -1 94 1951662709 1599735057 -2130685475 -1197743087
            -1786228411 -762281566 -527849672 745814377</internalNodes>
          <leafValues>
            -7.1211910247802734e-01 2.7438360452651978e-01</leafValues></_>
        <_>
          <internalNodes>
            0 -1 99 -410132199 -1492516829 33101 1100710914 1083056903
            101206016 137917509 -1047585245</internalNodes>
          <leafValues>
            -5.4142701625823975e-01 4.3215176463127136e-01</leafValues></_>
        <_>
          <internalNodes>
            0 -1 41 1074295611 1767198888 1137493 -83093119 -1861662445
            942376522 -905280303 -307687776</internalNodes>
          <leafValues>
            -4.9465429782867432e-01 5.0566434860229492e-01</leafValues></_>
        <_>
          <internalNodes>
            0 -1 25 1655819739 889991200 -1610612133 353829065 36176010
            -1106394989 1745600699 1998351084</internalNodes>
          <leafValues>
            -5.4420477151870728e-01 4.3747836351394653e-01</leafValues></_></weakClassifiers></_></stages>
  <features>
    <_>
      <rect>
        0 3 21 13</rect></_>
    <_>
      <rect>
        0 4 20 20</rect></_>
    <_>
      <rect>
        0 9 8 13</rect></_>
    <_>
      <rect>
        0 13 1 1</rect></_>
    <_>
      <rect>
        0 21 8 14</rect></_>
    <_>
      <rect>
        0 24 8 13</rect></_>
    <_>
      <rect>
        0 24 12 13</rect></_>
    <_>
      <rect>
        0 28 5 11</rect></_>
    <_>
      <rect>
        0 32 5 7</rect></_>
    <_>
      <rect>
        0 32 6 8</rect></_>
    <_>
      <rect>
        0 33 4 10</rect></_>
    <_>
      <rect>
        0 35 7 7</rect></_>
    <_>
      <rect>
        0 45 13 6</rect></_>
    <_>
      <rect>
        0 49 10 5</rect></_>
    <_>
      <rect>
        1 10 12 18</rect></_>
    <_>
      <rect>
        1 24 19 12</rect></_>
    <_>
      <rect>
        1 46 7 6</rect></_>
    <_>
      <rect>
        1 48 14 3</rect></_>
    <_>
      <rect>
        2 25 7 10</rect></_>
    <_>
      <rect>
        2 38 6 8</rect></_>
    <_>
      <rect>
        2 45 13 3</rect></_>
    <_>
      <rect>
        2 46 13 6</rect></_>
    <_>
      <rect>
        3 1 11 20</rect></_>
    <_>
      <rect>
        3 8 17 18</rect></_>
    <_>
      <rect>
        3 40 7 8</rect></_>
    <_>
      <rect>
        4 2 10 15</rect></_>
    <_>
      <rect>
        4 6 17 12</rect></_>
    <_>
      <rect>
        4 17 20 11</rect></_>
    <_>
      <rect>
        4 40 8 8</rect></_>
    <_>
      <rect>
        4 45 9 6</rect></_>
    <_>
      <rect>
        4 55 3 3</rect></_>
    <_>
      <rect>
        5 0 19 9</rect></_>
    <_>
      <rect>
        5 5 1 1</rect></_>
    <_>
      <rect>
        5 34 8 6</rect></_>
    <_>
      <rect>
        5 42 3 3</rect></_>
    <_>
      <rect>
        5 42 8 7</rect></_>
    <_>
      <rect>
        5 46 15 6</rect></_>
    <_>
      <rect>
        6 0 10 9</rect></_>
    <_>
      <rect>
        6 0 12 17</rect></_>
    <_>
      <rect>
        7 55 5 3</rect></_>
    <_>
      <rect>
        7 58 1 2</rect></_>
    <_>
      <rect>
        8 19 13 10</rect></_>
    <_>
      <rect>
        8 20 12 13</rect></_>
    <_>
      <rect>
        8 38 4 5</rect></_>
    <_>
      <rect>
        9 1 11 21</rect></_>
    <_>
      <rect>
        10 61 1 1</rect></_>
    <_>
      <rect>
        11 61 2 1</rect></_>
    <_>
      <rect>
        12 7 15 10</rect></_>
    <_>
      <rect>
        12 41 6 6</rect></_>
    <_>
      <rect>
        13 31 6 11</rect></_>
    <_>
      <rect>
        14 0 16 5</rect></_>
    <_>
      <rect>
        15 24 1 1</rect></_>
    <_>
      <rect>
        17 36 3 4</rect></_>
    <_>
      <rect>
        18 37 1 1</rect></_>
    <_>
      <rect>
        19 0 8 11</rect></_>
    <_>
      <rect>
        19 7 7 5</rect></_>
    <_>
      <rect>
        20 27 2 4</rect></_>
    <_>
      <rect>
        20 28 2 6</rect></_>
    <_>
      <rect>
        20 29 1 1</rect></_>
    <_>
      <rect>
        20 37 1 1</rect></_>
    <_>
      <rect>
        21 24 2 5</rect></_>
    <_>
      <rect>
        21 26 1 1</rect></_>
    <_>
      <rect>
        21 32 1 1</rect></_>
    <_>
      <rect>
        21 40 1 1</rect></_>
    <_>
      <rect>
        22 0 11 8</rect></_>
    <_>
      <rect>
        22 19 3 5</rect></_>
    <_>
      <rect>
        22 24 2 6</rect></_>
    <_>
      <rect>
        22 30 2 5</rect></_>
    <_>
      <rect>
        22 33 2 5</rect></_>
    <_>
      <rect>
        22 35 1 1</rect></_>
    <_>
      <rect>
        22 37 1 1</rect></_>
    <_>
      <rect>
        23 15 3 4</rect></_>
    <_>
      <rect>
        23 20 2 5</rect></_>
    <_>
      <rect>
        23 22 3 7</rect></_>
    <_>
      <rect>
        23 24 1 2</rect></_>
    <_>
      <rect>
        23 24 2 6</rect></_>
    <_>
      <rect>
        23 32 1 1</rect></_>
    <_>
      <rect>
        23 37 1 1</rect></_>
    <_>
      <rect>
        24 0 4 6</rect></_>
    <_>
      <rect>
        24 9 3 8</rect></_>
    <_>
      <rect>
        24 23 2 4</rect></_>
    <_>
      <rect>
        24 24 1 1</rect></_>
    <_>
      <rect>
        24 26 1 1</rect></_>
    <_>
      <rect>
        24 29 1 1</rect></_>
    <_>
      <rect>
        25 0 12 7</rect></_>
    <_>
      <rect>
        25 24 1 1</rect></_>
    <_>
      <rect>
        25 27 1 1</rect></_>
    <_>
      <rect>
        25 29 1 1</rect></_>
    <_>
      <rect>
        25 32 1 1</rect></_>
    <_>
      <rect>
        25 37 1 1</rect></_>
    <_>
      <rect>
        26 32 1 1</rect></_>
    <_>
      <rect>
        28 7 12 19</rect></_>
    <_>
      <rect>
        30 52 11 3</rect></_>
    <_>
      <rect>
        31 29 11 5</rect></_>
    <_>
      <rect>
        32 60 1 1</rect></_>
    <_>
      <rect>
        34 16 9 3</rect></_>
    <_>
      <rect>
        34 20 10 2</rect></_>
    <_>
      <rect>
        37 0 9 3</rect></_>
    <_>
      <rect>
        37 52 9 2</rect></_>
    <_>
      <rect>
        39 28 8 6</rect></_>
    <_>
      <rect>
        40 60 1 1</rect></_>
    <_>
      <rect>
        41 52 6 2</rect></_>
    <_>
      <rect>
        42 34 7 3</rect></_>
    <_>
      <rect>
        42 54 5 3</rect></_>
    <_>
      <rect>
        43 50 4 3</rect></_>
    <_>
      <rect>
        44 2 3 1</rect></_>
    <_>
      <rect>
        45 0 5 3</rect></_>
    <_>
      <rect>
        45 19 6 1</rect></_>
    <_>
      <rect>
        45 54 5 1</rect></_>
    <_>
      <rect>
        47 45 2 1</rect></_>
    <_>
      <rect>
        48 12 5 1</rect></_>
    <_>
      <rect>
        48 60 1 1</rect></_>
    <_>
      <rect>
        49 0 5 2</rect></_>
    <_>
      <rect>
        49 15 2 1</rect></_>
    <_>
      <rect>
        49 15 4 1</rect></_>
    <_>
      <rect>
        49 16 5 2</rect></_>
    <_>
      <rect>
        50 1 2 1</rect></_>
    <_>
      <rect>
        50 52 1 1</rect></_>
    <_>
      <rect>
        51 10 4 18</rect></_>
    <_>
      <rect>
        51 11 3 1</rect></_>
    <_>
      <rect>
        52 9 3 1</rect></_>
    <_>
      <rect>
        54 4 3 1</rect></_>
    <_>
      <rect>
        56 8 2 1</rect></_>
    <_>
      <rect>
        56 17 1 1</rect></_>
    <_>
      <rect>
        56 17 2 1</rect></_>
    <_>
      <rect>
        56 58 1 1</rect></_>
    <_>
      <rect>
        56 59 2 1</rect></_>
    <_>
      <rect>
        56 61 1 1</rect></_>
    <_>
      <rect>
        57 3 2 1</rect></_>
    <_>
      <rect>
        57 9 2 1</rect></_>
    <_>
      <rect>
        57 19 2 1</rect></_>
    <_>
      <rect>
        58 13 2 1</rect></_>
    <_>
      <rect>
        58 52 1 1</rect></_>
    <_>
      <rect>
        59 60 1 1</rect></_>
    <_>
      <rect>
        61 18 1 1</rect></_>
    <_>
      <rect>
        61 60 1 1</rect></_></features></cascade>
</opencv_storage>
